%YAML:1.0
---
stick_hog_desc: !!opencv-object-detector-hog
   winSize: [ 48, 96 ]
   blockSize: [ 16, 16 ]
   blockStride: [ 8, 8 ]
   cellSize: [ 8, 8 ]
   nbins: 9
   derivAperture: 1
   winSigma: 4.
   histogramNormType: 0
   L2HysThreshold: 2.0000000000000001e-01
   gammaCorrection: 1
   nlevels: 64
   signedGradient: 0
   SVMDetector: [ -7.28691509e-03, -1.96574070e-03, 4.68662335e-03,
       2.71876324e-02, 1.33829042e-02, 1.71596743e-02, 3.66561860e-03,
       -4.03149053e-03, -7.01174699e-03, -1.63867753e-02,
       -1.26512293e-02, 8.41677003e-03, 3.27731036e-02, 2.89241485e-02,
       2.84477454e-02, 2.17546709e-03, -1.90450845e-03, -1.06339054e-02,
       -1.52634131e-03, -1.29798865e-02, -8.17646179e-03, 2.48164851e-02,
       2.41383538e-02, 2.74955444e-02, 1.67221650e-02, 4.43947222e-03,
       1.31882099e-03, -1.37900673e-02, -1.41163860e-02, 3.34576634e-03,
       2.86720898e-02, 8.34197458e-03, 3.10258698e-02, 8.87210201e-03,
       7.26972474e-03, -4.61917231e-03, -1.95874050e-02, -1.11448728e-02,
       4.98846872e-04, 2.62672007e-02, 2.63039935e-02, 1.82348080e-02,
       -8.41429830e-03, 4.88303462e-03, -7.17300549e-03, -1.04799410e-02,
       -1.97895453e-03, -1.48794136e-03, 2.57867482e-02, 1.14687225e-02,
       8.26496352e-03, -9.43569839e-03, 2.36324244e-03, -4.86729201e-03,
       -8.51071533e-03, -5.71298273e-03, 2.75827944e-03, 2.13288814e-02,
       1.09863549e-03, 2.06655897e-02, 1.33405486e-03, 1.01277428e-02,
       2.53880280e-04, 1.32222558e-04, 4.48836759e-03, -1.10136729e-03,
       1.45516973e-02, -1.62387118e-02, 9.99170728e-03, 5.65211847e-03,
       9.43992380e-03, 1.64361065e-03, -9.35664959e-03, -3.95649159e-03,
       2.97027058e-03, 2.13521626e-02, 1.73831433e-02, 1.46508599e-02,
       -7.56176887e-03, -6.51035411e-03, -5.42992493e-03,
       -1.76512413e-02, -1.47004202e-02, -4.96946136e-03, 1.90490037e-02,
       1.52079028e-03, 2.50074863e-02, -2.63598841e-03, -6.17950642e-03,
       -8.93544126e-03, 2.70701153e-03, -5.84577024e-03, -3.01511795e-03,
       1.63322687e-02, 6.93467679e-03, 2.08873227e-02, 1.20836394e-02,
       7.89920148e-03, 5.74527262e-03, -1.16860885e-02, -6.48149010e-03,
       1.83271919e-03, 2.48754732e-02, -2.76995590e-03, 2.28353217e-02,
       9.57601762e-04, 3.61556164e-03, -4.66439920e-03, -2.32138317e-02,
       -1.83567554e-02, -1.47673348e-02, 7.84229673e-03, 9.74276010e-03,
       1.95576400e-02, 4.66270139e-03, 4.00752202e-03, -5.36429416e-03,
       -1.90418269e-02, -1.14491098e-02, -1.03293825e-02, 2.16532573e-02,
       1.64013803e-02, 2.68836394e-02, 1.59068462e-02, 1.11844726e-02,
       -7.91768171e-03, -2.29340158e-02, -1.14672109e-02, 4.47276374e-03,
       2.35733893e-02, 2.36862130e-03, 2.85833590e-02, 5.59844542e-03,
       6.09096838e-03, -9.73311532e-03, -1.48517508e-02, -4.46531596e-03,
       3.13795661e-03, 2.13663615e-02, 6.12591207e-03, 2.63131913e-02,
       2.26364508e-02, 1.15402155e-02, -1.83895626e-03, -1.53862834e-02,
       -8.80251452e-03, -7.43963802e-03, 3.04067917e-02, 2.44675633e-02,
       8.26576818e-03, 6.65722787e-03, 7.15185236e-03, -1.22446185e-02,
       -1.49293244e-02, -1.80400896e-03, 9.95849725e-03, 3.21363471e-02,
       4.52063698e-03, 2.84686708e-03, -2.49900180e-03, -1.70004170e-03,
       -1.10815298e-02, -5.36144245e-03, 5.44170197e-03, -3.09752836e-03,
       2.27469802e-02, 1.44059062e-02, 4.46282933e-03, 6.72211405e-04,
       7.76130008e-03, -2.09064200e-03, -1.15547432e-02, 9.01637832e-04,
       -4.66176192e-04, 3.12317219e-02, 6.14606356e-03, -6.27345126e-03,
       -1.42365331e-02, -1.32899377e-02, -1.43538434e-02,
       -7.34228268e-03, 6.15676260e-03, 1.17950393e-02, 2.74084918e-02,
       1.69729181e-02, 1.38638262e-02, 4.55725100e-03, -2.15837499e-03,
       -7.47652259e-04, -8.53369664e-03, 3.66597087e-03, 5.58186229e-03,
       3.06380652e-02, 1.23180002e-02, 2.14897916e-02, -6.52911433e-04,
       -7.97924679e-03, -2.04796065e-03, -7.86815211e-03, 8.37844145e-03,
       8.65240768e-03, 2.99971085e-02, 1.32391667e-02, 5.93929971e-03,
       -1.02479197e-02, -1.65592395e-02, -7.52686476e-03,
       -9.60706268e-03, 7.10570300e-03, 1.09783709e-02, 2.43534017e-02,
       1.93090383e-02, 2.19813827e-02, -8.87371693e-03, -1.03587275e-02,
       -1.27565572e-02, -6.26496598e-03, 4.67368541e-03, 5.73568046e-03,
       2.56731585e-02, 1.10864267e-02, 1.09472936e-02, -6.61556027e-04,
       -4.73464839e-03, -7.81642739e-03, -6.71501178e-03, 3.95448320e-03,
       3.64904921e-03, 1.67959314e-02, 2.61279885e-02, 2.74037458e-02,
       7.94639625e-03, 8.30083445e-04, -1.33098112e-02, -7.49182794e-03,
       7.30597600e-03, 7.87080079e-03, 2.86990963e-02, 1.77216623e-02,
       1.62913371e-02, -6.93912990e-03, -5.25620347e-03, -1.48824239e-02,
       -3.82212945e-03, 5.39607182e-03, 4.99941921e-03, 2.46182997e-02,
       1.37232020e-02, 1.23439133e-02, 1.02968784e-02, 9.06194327e-04,
       -1.06654465e-02, -7.17659295e-03, 2.73657474e-03, 8.51038436e-04,
       1.81738343e-02, 2.24932712e-02, 2.30876468e-02, 5.42874914e-03,
       -2.28208327e-03, -1.55566270e-02, -1.93417184e-02,
       -4.78777522e-03, -3.08149680e-03, 1.91968158e-02, 1.37398131e-02,
       3.49525660e-02, 8.87232460e-03, -2.27076793e-03, -1.16496636e-02,
       -8.38495384e-04, 8.12769961e-03, -2.76598125e-03, 1.68246925e-02,
       1.24128126e-02, 3.74775659e-03, 3.33507149e-03, -1.61206094e-03,
       -6.19953638e-03, -8.20877589e-03, -3.60419671e-03, 1.83980243e-04,
       2.84551065e-02, 1.41885383e-02, 2.41166260e-02, -5.62423840e-04,
       -1.82255835e-03, -6.05648058e-03, -1.96438618e-02,
       -1.18617425e-02, -4.00443096e-03, 2.25923080e-02, 1.20568471e-02,
       1.82796270e-02, 3.65782616e-04, -6.03334419e-03, -1.21594658e-02,
       -1.11497007e-02, -2.85242405e-03, 8.11538380e-03, 3.83349508e-02,
       1.91896763e-02, 1.22561809e-02, -1.53851416e-02, -1.70302484e-02,
       -1.37504805e-02, -1.23937046e-02, -8.48565716e-03, 2.41706846e-03,
       3.28602605e-02, 2.24219579e-02, 1.98785774e-02, -7.36977346e-03,
       -3.45719163e-03, -8.58854968e-03, -1.10963127e-03, 3.66213237e-04,
       1.89950410e-02, 4.53372598e-02, 2.07739044e-02, 1.62033532e-02,
       -2.06019580e-02, -1.41508291e-02, -7.94779975e-03,
       -9.08421446e-03, -6.42116647e-04, 1.06661627e-02, 3.64819542e-02,
       3.23373117e-02, 7.14825187e-03, -1.63394231e-02, -1.58664472e-02,
       -1.87501181e-02, -2.51884516e-02, -9.47890710e-03,
       -3.62272770e-03, 3.09112649e-02, 2.55046710e-02, 1.97543036e-02,
       -9.00842994e-03, -1.36291981e-02, -2.58330591e-02,
       -3.15078651e-03, -6.62883278e-03, 1.30209485e-02, 3.46492603e-02,
       2.99789570e-02, 2.30427925e-02, -2.00876240e-02, -2.06085220e-02,
       -1.52595732e-02, -2.08987705e-02, -1.18282903e-02,
       -3.99391074e-03, 2.82173958e-02, 4.04323265e-02, 3.45753990e-02,
       1.97058334e-03, -9.97410715e-03, -2.51652077e-02, -3.23070399e-02,
       -1.95588265e-02, -1.73685085e-02, 2.16308553e-02, 2.60368921e-02,
       2.79019512e-02, 7.55289383e-03, -5.53267216e-03, -2.80691665e-02,
       -2.47335546e-02, -1.52706178e-02, -9.20002814e-03, 2.40695719e-02,
       3.16227339e-02, 2.70321723e-02, 1.33525729e-02, -1.02273084e-03,
       -3.16898562e-02, -3.57301496e-02, -1.94404069e-02,
       -1.88006845e-04, 3.57422344e-02, 4.09225263e-02, 3.22268568e-02,
       1.43448645e-02, -9.49147530e-03, -3.35466787e-02, -2.04596184e-02,
       -1.35114919e-02, 3.51128075e-03, 3.55701521e-02, 2.10578255e-02,
       2.94352323e-02, 2.19508689e-02, 2.14482006e-03, -1.77452341e-02,
       1.07001690e-02, -1.97315626e-02, -1.92267224e-02, -1.49199076e-03,
       -1.16978353e-02, -2.93025747e-03, -2.90072616e-03, 1.76905561e-03,
       2.28677318e-02, -5.75366896e-03, -3.42848971e-02, -1.58021618e-02,
       4.56732139e-03, -2.28620786e-02, -6.16951520e-03, -1.08391382e-02,
       5.05629787e-03, 1.29749142e-02, 5.73273115e-02, 4.69535543e-03,
       -1.04246689e-02, -8.15759506e-03, -7.80350342e-03,
       -6.31298032e-03, -1.19943507e-02, 1.09951487e-02, 6.94150701e-02,
       4.19400707e-02, -1.72705147e-02, -2.54120156e-02, -1.56578533e-02,
       -2.67206784e-02, -4.43508849e-03, -1.18619921e-02, 9.81761701e-03,
       6.58400282e-02, -5.40071446e-03, -2.29664519e-02, -9.60837677e-03,
       5.66321937e-03, -6.83635846e-03, 2.18023127e-03, -4.75238812e-05,
       7.86836352e-03, 1.46821281e-02, 1.13471765e-02, -6.82640634e-03,
       -8.61789379e-03, 4.13832488e-03, -1.41996583e-02, -6.21355465e-03,
       -2.78547592e-03, 6.33812277e-03, 1.77645553e-02, 3.25750336e-02,
       -1.43474210e-02, -1.78956520e-02, -4.82483860e-03,
       -8.56665615e-03, 3.90308979e-03, -4.20449348e-03, 1.05771460e-02,
       5.13727441e-02, 3.42394672e-02, -2.06120126e-03, -6.56415895e-03,
       8.05334281e-03, -1.00455172e-02, -7.36539997e-03, -1.24353999e-02,
       6.46391790e-03, 4.58936580e-02, 7.34236278e-03, -1.21655464e-02,
       -5.85942762e-03, 1.03295185e-02, -4.43343772e-03, 7.50227692e-03,
       3.18425125e-03, 8.00884143e-03, 1.44081330e-02, -7.43610610e-04,
       -8.33081733e-03, -2.24921340e-03, 1.27448728e-02, -1.57486163e-02,
       9.68968961e-03, -3.15427314e-03, 3.86088062e-03, 8.03415198e-03,
       2.89588645e-02, 2.25678552e-03, -6.27516769e-04, 1.08055398e-02,
       -9.31698550e-03, 1.91714463e-03, -7.57826772e-03, 8.85677990e-03,
       4.33421284e-02, 2.27016136e-02, -2.79710116e-03, -3.58018279e-03,
       5.48978802e-03, -2.69930419e-02, 1.66611411e-02, 2.79106852e-03,
       7.79049005e-03, 3.03162728e-02, -2.34388118e-03, -8.19934160e-03,
       1.99519633e-03, 1.93268489e-02, -3.32580390e-03, 1.67771801e-02,
       -4.48136264e-03, -3.42278648e-03, -2.98199389e-04,
       -9.39844904e-05, -6.16332656e-03, -5.66100655e-03, 1.44709051e-02,
       -6.90555759e-03, 1.26025137e-02, 7.01513002e-03, 6.48580538e-03,
       6.74283830e-03, 1.54902469e-02, -1.79651789e-02, -5.58487140e-03,
       1.44259678e-02, -1.75308883e-02, 1.08304825e-02, -9.36489739e-03,
       2.70547671e-03, 2.89986096e-02, 1.88652463e-02, -6.86110044e-03,
       -1.36200702e-02, 7.58702727e-03, -1.49264596e-02, -1.97662017e-03,
       -7.98341818e-03, 6.61686808e-03, 3.12175248e-02, 8.22272804e-03,
       1.30061572e-02, 3.23741906e-03, 2.45565958e-02, 1.27003677e-02,
       8.17953201e-04, -6.16917340e-03, 5.80175174e-03, 1.38771916e-02,
       3.44469422e-03, -3.09646479e-04, -4.33139084e-03, 1.67575311e-02,
       1.54251617e-03, -2.39490042e-03, -1.23542445e-02, -1.06495395e-02,
       1.49805499e-02, 2.28991620e-02, -7.61885603e-04, -1.09149457e-03,
       8.89924355e-03, 8.22025817e-03, -3.00275395e-03, -7.45682977e-03,
       1.95528963e-03, 3.41980048e-02, 1.36596598e-02, -1.94815658e-02,
       -1.70884542e-02, -4.35596518e-03, -2.64196354e-03, 5.97346341e-03,
       -1.41646457e-03, -2.08262540e-03, 2.94224545e-02, -4.10810672e-03,
       -2.73559871e-03, -2.97336536e-03, 1.65619794e-02, 1.03370817e-02,
       2.12090998e-03, -7.78505532e-03, -8.80302303e-03, 5.52830612e-03,
       -9.94891208e-03, -5.29662659e-03, 8.33678339e-03, 2.22082511e-02,
       2.51400881e-02, 1.19400341e-02, -5.80955064e-03, -9.95331537e-03,
       -6.74443319e-03, 1.41442223e-02, -1.19421994e-02, -1.29969036e-02,
       3.29534826e-03, 8.93269759e-03, 8.13066959e-03, -1.94572308e-03,
       -2.86247837e-03, 2.04400942e-02, 1.47652095e-02, 1.21330712e-02,
       -2.30418961e-03, 2.05958076e-02, 1.78898834e-02, 1.31462363e-03,
       -1.13848671e-02, -3.78170703e-03, 2.06018202e-02, 2.02806247e-03,
       -6.08272757e-03, 4.19542519e-03, 1.48267085e-02, 1.40686845e-02,
       -4.02621925e-04, -1.26496367e-02, -1.56998262e-02,
       -3.16563412e-04, 4.68411949e-03, -8.45180592e-04, -6.49986177e-05,
       1.39829768e-02, 1.56628247e-03, -9.87287611e-03, -8.53752159e-03,
       -9.05031525e-03, 4.87414189e-03, 1.92117337e-02, 2.55355728e-03,
       -2.78664473e-03, 1.34010222e-02, 1.06548695e-02, -4.09622444e-03,
       -1.31113445e-02, -8.58436525e-03, 2.16537956e-02, 1.35547556e-02,
       -1.14917068e-03, -8.53497162e-03, 1.21828038e-02, 8.94208625e-03,
       -6.03717193e-03, -8.30486976e-03, -2.86244974e-03, 1.57242101e-02,
       3.98828415e-03, 9.88575775e-05, -1.15201960e-03, 1.23208761e-02,
       5.15293283e-03, -1.35499947e-02, -1.02113876e-02, -1.04327938e-02,
       1.75714330e-03, 8.22282210e-03, -1.27397070e-03, 2.55263317e-03,
       1.76050421e-02, 1.98757439e-03, -3.02678643e-04, -5.10943541e-03,
       -4.62447619e-03, 1.00900875e-02, 1.32216923e-02, -4.66237077e-03,
       -8.24161805e-03, 7.62950024e-03, 9.62150458e-04, -1.05526671e-02,
       -1.78657770e-02, -8.01497512e-03, 1.12948613e-02, 2.42426954e-02,
       3.56603158e-03, 2.02170154e-03, 9.74354520e-03, -1.11234989e-02,
       -2.15981398e-02, -1.62697956e-02, 2.30504922e-03, 3.60276066e-02,
       3.39297985e-04, -1.18914964e-02, -3.66356666e-03, 1.28414799e-02,
       8.23944528e-03, 6.10394124e-03, -2.71143299e-03, -4.66450350e-03,
       1.19753387e-02, 3.64253088e-03, -1.76546164e-02, -5.16820978e-03,
       1.72085036e-02, 1.02904662e-02, 6.83876080e-03, -8.64571240e-03,
       -6.80073211e-03, 4.51674641e-05, 2.74057947e-02, -7.96347670e-03,
       -6.67429622e-03, 4.57477896e-03, -4.14476264e-03, -1.01462808e-02,
       -2.92309863e-03, 5.49847679e-03, 3.73985283e-02, 2.20420696e-02,
       -1.96554344e-02, -2.94149332e-02, -1.22440113e-02,
       -7.92174600e-03, -3.11882887e-03, -1.27601949e-03, 7.86233228e-03,
       2.95995977e-02, 1.67535455e-03, -1.98930781e-02, -5.65195829e-03,
       1.99810863e-02, 1.77391320e-02, 1.32055916e-02, -1.09469006e-02,
       -1.45879136e-02, -8.57103430e-03, 6.30732276e-04, -1.10324938e-02,
       -5.27486764e-03, 2.11541485e-02, 2.86161993e-02, 2.33110134e-02,
       -3.87192308e-03, -1.98494568e-02, -1.56807713e-02, 2.72263363e-02,
       -1.91412456e-02, -2.64974684e-02, -1.01919128e-02,
       -7.48012355e-03, -3.11187515e-03, -1.42406467e-02,
       -5.37579507e-03, 3.45255397e-02, 3.68493386e-02, -1.33972405e-03,
       -1.04323989e-02, 7.62651255e-03, -5.79803903e-03, 5.72566548e-03,
       -1.95848085e-02, -2.18826998e-02, 2.55483128e-02, -1.13685820e-02,
       -9.99746658e-03, 7.57164846e-04, 2.12717559e-02, 2.49811504e-02,
       2.09001210e-02, 5.94963552e-04, -1.70785394e-02, -1.87989175e-02,
       -1.17682954e-02, -8.79251584e-03, 3.63204774e-04, 2.06844807e-02,
       8.07638373e-03, 1.63837560e-02, 4.48013749e-03, -1.65700520e-04,
       -9.18511767e-03, 2.77273804e-02, -5.17377490e-03, -1.45851728e-02,
       2.72279629e-03, -1.77488546e-03, 1.49868513e-02, -9.95096471e-03,
       -2.26495545e-02, 2.15616040e-02, 1.60008855e-02, -9.53589566e-03,
       -1.14868972e-02, 4.25202213e-03, -6.53840555e-03, 1.09534729e-02,
       1.69822702e-03, -2.09946046e-03, 2.28261277e-02, 7.17929304e-02,
       -1.36865117e-02, -2.96387319e-02, -2.94245966e-02,
       -3.06177568e-02, -2.36528125e-02, -2.11218465e-02,
       -1.03512243e-03, 8.97351131e-02, 5.76355197e-02, -3.82296629e-02,
       -5.23895212e-02, -4.21617627e-02, -5.16861379e-02,
       -2.39155646e-02, -2.99760960e-02, -5.52551355e-03, 7.86950216e-02,
       5.41096292e-02, -3.27913724e-02, -4.85473983e-02, -3.52208614e-02,
       -4.41106334e-02, -3.12466957e-02, -3.11996508e-02,
       -1.48027288e-02, 8.00483152e-02, 3.86306047e-02, -4.50730138e-02,
       -6.28536418e-02, -3.85605134e-02, -5.33179305e-02,
       -3.23980451e-02, -3.18269730e-02, -1.47798611e-02, 6.46351129e-02,
       4.48998287e-02, -2.97760293e-02, -3.84848975e-02, -2.03833710e-02,
       -1.92471631e-02, -8.55613220e-03, -1.80306584e-02,
       -8.01982637e-03, 6.16464429e-02, 3.26646008e-02, -1.94658414e-02,
       -3.01184934e-02, -9.55037586e-03, -2.15367172e-02,
       -1.43521149e-02, -2.58022975e-02, -1.50125986e-02, 5.02998941e-02,
       3.40526998e-02, -2.86014955e-02, -3.45790312e-02, -6.71374006e-03,
       -2.21323576e-02, -6.69297017e-03, -2.24780012e-02,
       -1.49936518e-02, 5.32853454e-02, 3.67384292e-02, -1.05974376e-02,
       -2.82739028e-02, -2.75221933e-03, -2.84005105e-02,
       -4.59866889e-04, -2.53988598e-02, -1.80451572e-02, 4.86558378e-02,
       4.53317091e-02, -5.50074922e-03, -1.92898493e-02, -7.16376351e-03,
       -1.20613473e-02, -8.68723670e-04, -1.75512601e-02,
       -4.30220319e-03, 5.63259721e-02, 4.11981829e-02, -1.78005584e-02,
       -2.03092117e-02, -1.60381235e-02, -3.15000713e-02,
       -1.81329658e-03, -1.75229553e-02, -7.01315980e-03, 5.79953976e-02,
       4.96930555e-02, -9.54458676e-03, -2.24403068e-02, -2.80229794e-03,
       -2.34356243e-02, 3.26682348e-03, -2.00960524e-02, -9.93232429e-03,
       6.61670119e-02, 4.58392985e-02, -2.67936178e-02, -2.98052244e-02,
       -1.84006095e-02, -5.14437892e-02, -1.71322729e-02,
       -3.17595452e-02, -1.46359680e-02, 5.46727553e-02, 3.75104956e-02,
       -2.38316692e-02, -1.60155054e-02, -2.33175990e-04,
       -1.83639340e-02, -2.51394347e-03, -1.34767173e-02,
       -5.17173391e-03, 5.55648357e-02, 4.38215621e-02, -1.99855193e-02,
       -3.18870619e-02, -1.26474341e-02, -2.99955793e-02,
       -1.79958642e-02, -1.75993126e-02, -5.43777505e-03, 5.86445667e-02,
       3.65559272e-02, -3.45770232e-02, -2.65897252e-02, -1.63576193e-02,
       -3.38144787e-02, -1.67475920e-02, -1.87222846e-02, 2.63020163e-04,
       6.56891018e-02, 4.54795472e-02, -3.95450890e-02, -5.18438406e-02,
       -4.71282452e-02, -5.56981601e-02, -3.51083428e-02,
       -2.97775138e-02, -7.94828590e-03, 6.84233308e-02, 4.96523790e-02,
       -1.10240914e-02, -2.43446045e-02, -1.72944311e-02,
       -1.61796790e-02, -1.68252345e-02, -1.70776211e-02,
       -4.64804750e-03, 7.07009807e-02, 3.94124463e-02, -2.93832459e-02,
       -2.74545010e-02, -1.84707083e-02, -2.21110992e-02,
       -1.82027575e-02, -1.93954427e-02, -1.24838874e-02, 6.20141923e-02,
       7.63533860e-02, -1.58270802e-02, -4.02336381e-02, -3.84546816e-02,
       -3.72723751e-02, -3.77877131e-02, -3.20509002e-02,
       -5.51966205e-03, 7.53139928e-02, 5.23735695e-02, -2.76434813e-02,
       -4.11238782e-02, -3.64515781e-02, -4.77441140e-02,
       -3.46496031e-02, -3.72037292e-02, -1.43504944e-02, 5.87872081e-02,
       4.03335690e-02, -2.56647244e-02, -2.45939977e-02, -1.26694050e-02,
       -7.49200350e-03, -1.54149570e-02, -2.05472019e-02,
       -1.53566869e-02, 5.48894145e-02, 4.12234105e-02, -1.03583178e-02,
       -2.57859696e-02, -2.50867964e-03, -4.49366774e-03,
       -1.45865045e-02, -2.81544738e-02, -1.26645882e-02, 5.36456108e-02,
       5.26396967e-02, -3.35013941e-02, -3.29477452e-02, -1.87721625e-02,
       -3.49522345e-02, -2.84922924e-02, -3.11734453e-02,
       -1.41912336e-02, 6.49323016e-02, 4.72780205e-02, -3.10218129e-02,
       -3.88446078e-02, -1.94044560e-02, -2.59486865e-02,
       -2.15775669e-02, -2.90603489e-02, -2.33838544e-03, 6.39069229e-02,
       3.64859365e-02, -1.06368465e-02, -2.21203193e-02, -3.21526825e-03,
       -7.77986087e-03, -1.65892765e-02, -1.97374094e-02,
       -7.09743705e-03, 4.91856709e-02, 3.94609794e-02, -8.46000481e-03,
       -2.26904787e-02, -3.57212801e-03, -9.77240596e-03,
       -1.21306293e-02, -1.07852602e-02, -2.85268854e-03, 3.97131257e-02,
       4.12008129e-02, -3.39604542e-02, -3.42504866e-02, -1.96550507e-02,
       -2.34150980e-02, -1.91475060e-02, -1.97963007e-02, 8.00445303e-03,
       6.33096397e-02, 4.04670537e-02, -1.55745717e-02, -3.52018811e-02,
       -2.24310402e-02, -1.73037313e-02, -9.63373482e-03,
       -9.17986035e-03, 5.33610582e-03, 6.24175407e-02, 3.69340070e-02,
       -1.20823048e-02, -2.11187359e-02, -1.05663640e-02,
       -1.10438270e-02, -9.99378227e-03, -1.49297640e-02,
       -1.07026091e-02, 3.23854536e-02, 4.08646129e-02, -1.56825092e-02,
       -1.95545293e-02, -5.08462824e-03, -1.38923973e-02,
       -1.74090918e-02, -1.90929789e-02, -2.88958219e-03, 4.59690168e-02,
       4.69461307e-02, -1.30625023e-02, -3.74359488e-02, -2.82371752e-02,
       -2.32141055e-02, -1.35835111e-02, -1.84125230e-02,
       -1.26127610e-02, 5.00359647e-02, 4.69178595e-02, -2.62787975e-02,
       -4.42485772e-02, -2.04371680e-02, -2.95505188e-02,
       -2.25627944e-02, -2.84248386e-02, -2.07147878e-02, 4.98477407e-02,
       3.79054770e-02, -1.79590825e-02, -2.36462541e-02, -9.17453319e-03,
       -9.66954604e-03, -1.79190096e-02, -1.51926167e-02,
       -3.36479372e-03, 4.53632623e-02, 3.74237522e-02, -2.18514483e-02,
       -4.07075360e-02, -3.73373739e-02, -2.53610443e-02,
       -1.38030620e-02, -1.83251165e-02, -4.08183504e-03, 5.28884195e-02,
       4.87793013e-02, -3.12970839e-02, -3.76973413e-02, -1.70252956e-02,
       -2.83225030e-02, -1.66661702e-02, -2.11609546e-02,
       -1.85864083e-02, 5.39825261e-02, 5.37318997e-02, -2.89381333e-02,
       -3.44107114e-02, -2.78768279e-02, -4.30512205e-02,
       -2.70562470e-02, -2.73424424e-02, -2.16370746e-02, 5.45971468e-02,
       4.37970124e-02, -2.64996141e-02, -3.55199799e-02, -3.52663733e-02,
       -2.94726156e-02, -1.75564066e-02, -2.43131109e-02,
       -1.29555315e-02, 6.10375218e-02, 4.90166098e-02, -1.59284305e-02,
       -2.32384000e-02, -1.14188129e-02, -1.97839811e-02,
       -1.95463430e-02, -3.62067893e-02, -2.97332555e-02, 6.32749423e-02,
       5.78394681e-02, -3.09951752e-02, -3.14682163e-02, -2.56519187e-02,
       -3.37659828e-02, -2.93061882e-02, -3.24253142e-02,
       -2.06519421e-02, 6.42299429e-02, 5.65036200e-02, -1.66814923e-02,
       -3.15313749e-02, -1.61423609e-02, -2.52140034e-02,
       -2.88467258e-02, -4.69618626e-02, -3.06162760e-02, 5.70191890e-02,
       4.93837707e-02, -1.54215433e-02, -2.47497950e-02, -1.71123873e-02,
       -2.97253821e-02, -1.53306639e-02, -2.96776723e-02,
       -3.13376002e-02, 4.35447134e-02, 4.97691967e-02, -1.65248271e-02,
       -3.11169196e-02, -2.78098881e-02, -3.88214849e-02,
       -1.39331119e-02, -1.61864739e-02, -6.58182567e-03, 5.34761436e-02,
       5.98567799e-02, -1.09267207e-02, -2.90613249e-02, -1.48461256e-02,
       -3.26027796e-02, -3.22083421e-02, -4.24371623e-02,
       -2.66885329e-02, 5.46787605e-02, 6.89329654e-02, -1.47606926e-02,
       -3.92429121e-02, -2.91884709e-02, -4.09363285e-02,
       -3.80950235e-02, -3.64444479e-02, 7.12036563e-04, 7.29783028e-02,
       4.66886871e-02, -1.97874457e-02, -2.16420256e-02, 9.25283413e-03,
       -1.56181892e-02, -1.14610577e-02, -2.42867880e-02,
       -1.27803087e-02, 5.03411926e-02, 2.44237408e-02, -2.01730579e-02,
       -2.48820931e-02, -5.50574437e-03, -2.50101928e-02,
       -1.34185795e-02, -2.55526248e-02, -8.74164049e-03, 3.46709080e-02,
       2.12299414e-02, -6.55441836e-04, -3.86317051e-03, 2.89926734e-02,
       2.13937238e-02, 1.35359596e-02, -1.15481224e-02, -4.89618955e-03,
       1.01826452e-02, 1.33720879e-02, -2.00725552e-02, -1.87984277e-02,
       1.57360565e-02, -1.60677521e-03, 8.99398513e-03, -1.08513953e-02,
       -1.04689714e-03, 1.15589714e-02, 2.65225731e-02, -5.32489596e-03,
       -8.79899133e-03, 7.00483890e-03, -3.91263235e-03, 2.62655341e-03,
       -1.23859784e-02, 4.02798504e-03, 3.24676074e-02, 2.42968984e-02,
       -3.95546248e-03, -1.13615375e-02, 8.09293706e-03, -8.12880043e-03,
       1.03579517e-02, -3.21484986e-03, 2.44900817e-03, 3.23538110e-02,
       4.15194407e-03, -1.06175886e-02, -1.01612024e-02, 5.26809646e-03,
       4.26486647e-03, 5.24673751e-03, -7.98616558e-03, 6.92087645e-03,
       7.56317750e-03, -1.23531129e-02, -1.87721010e-02, -1.65837072e-02,
       9.11060814e-03, -7.42071366e-04, 7.09475623e-03, -6.61872141e-03,
       2.89148651e-04, -4.13772324e-03, 3.70170027e-02, -7.17535941e-03,
       -6.55332813e-03, 8.80400185e-03, -7.88437761e-03, 7.16032600e-03,
       -2.86714314e-03, 4.16795351e-03, 5.17316461e-02, 3.87216173e-02,
       -1.38125867e-02, -1.29662855e-02, 1.81318179e-03, -2.40102150e-02,
       -6.79412764e-03, -1.85979623e-02, 1.99122354e-03, 5.26600257e-02,
       -1.49736600e-03, -2.15015262e-02, -1.00402264e-02, 1.29669271e-02,
       1.17078552e-03, 7.59635027e-03, -8.66730791e-03, 4.34130663e-03,
       1.15914671e-02, 7.91057199e-03, -1.15925344e-02, -7.98203424e-03,
       7.61838350e-03, -9.65624768e-03, 1.01859565e-03, -1.59321558e-02,
       1.09882851e-03, 1.39757218e-02, 3.09561193e-02, -1.98500510e-02,
       -1.80845130e-02, -1.87629682e-03, -1.72141474e-02,
       -5.36436820e-03, -8.41229875e-03, 7.04794936e-03, 5.84868230e-02,
       3.62516493e-02, -1.83551498e-02, -2.60161683e-02, -1.60712916e-02,
       -2.41452958e-02, -1.36904484e-02, -1.18423980e-02,
       -4.94352076e-03, 5.73677458e-02, 1.31729627e-02, 3.72806005e-03,
       4.76403628e-04, 1.67135857e-02, 4.35781945e-03, 6.07096776e-03,
       -5.06821368e-03, -2.94877193e-03, 1.71030965e-02, 1.04722008e-02,
       -4.29623807e-03, 3.17617948e-03, 1.68679133e-02, -9.62137431e-03,
       2.48236069e-03, -4.17454727e-03, -4.72327648e-03, 1.86235476e-02,
       3.86133194e-02, -5.04898513e-03, -2.12931186e-02, -1.33665986e-02,
       -8.72140285e-03, -1.01424875e-02, -1.24448640e-02,
       -8.60030763e-03, 4.77996692e-02, 2.85928007e-02, -8.92413128e-03,
       -2.31949948e-02, -1.88793074e-02, -1.85747277e-02,
       -4.02395707e-03, -2.15107873e-02, -1.26941772e-02, 3.24041098e-02,
       1.45799741e-02, 1.36472320e-03, -1.36631273e-03, 1.37727885e-02,
       6.17824681e-03, 5.90034015e-03, -3.41225462e-03, -1.67962071e-03,
       1.48139661e-02, 1.40444636e-02, 2.43023690e-03, -8.90722964e-03,
       1.33464753e-03, 1.15458779e-02, 1.55733842e-02, -1.00518996e-02,
       9.63490980e-04, 1.00990897e-02, 2.93662976e-02, -1.63578968e-02,
       -1.93125550e-02, -9.59685445e-03, -2.26232614e-02,
       -9.51424893e-03, -1.77368186e-02, -4.16185008e-03, 3.99140306e-02,
       2.64275987e-02, -1.94216631e-02, -1.71743389e-02, -2.40096869e-03,
       -1.39741749e-02, -1.03709120e-02, -2.00315956e-02, 2.44262698e-03,
       4.01558802e-02, 1.28535498e-02, -4.76151123e-04, -1.49593048e-03,
       5.20289317e-03, 1.01683224e-02, 4.07455768e-03, -2.10291035e-02,
       1.51655171e-03, 1.68048833e-02, 1.80413388e-02, 6.77444926e-03,
       1.47001557e-02, 2.10026037e-02, 1.23494519e-02, -1.18405037e-02,
       -3.20677534e-02, -5.17059723e-03, 1.59391593e-02, 1.69208962e-02,
       -2.00827774e-02, -1.87226608e-02, -1.11563727e-02,
       -5.98705560e-03, -7.92565756e-03, -1.14930524e-02, 4.66638850e-03,
       4.25860360e-02, 2.55049262e-02, -1.34799005e-02, -1.91810746e-02,
       -1.51710920e-02, -9.27643850e-03, 9.94233880e-04, -1.80780422e-03,
       3.58292856e-03, 4.56594490e-02, 1.10300398e-02, -2.43197964e-03,
       6.12804247e-03, 1.72906704e-02, 7.78157776e-03, -5.82902599e-03,
       -2.20085680e-02, -5.85647207e-03, 1.65391490e-02, 1.59948319e-02,
       1.67137140e-03, 2.65631475e-03, 5.27440757e-03, -2.98146112e-03,
       7.45309517e-03, -7.00079836e-03, -4.39683301e-03, 2.47159172e-02,
       3.01500112e-02, -1.27263516e-02, -2.28232648e-02, -2.10669599e-02,
       -1.07198330e-02, -2.33557215e-03, -5.17219258e-03,
       -2.24048155e-03, 3.54854017e-02, 2.72060726e-02, -2.36264598e-02,
       -3.22235562e-02, -2.28963420e-03, -1.00460593e-02,
       -5.49568562e-03, -1.52237937e-02, -4.82243998e-03, 3.17341127e-02,
       1.94643736e-02, -3.51680419e-03, -6.69410592e-03, -9.41585191e-03,
       -9.32077039e-03, 7.79033080e-03, -2.79323867e-04, 1.62716419e-03,
       3.12655158e-02, 1.83832534e-02, -6.50256081e-03, -1.20724821e-02,
       1.38122682e-02, -1.61029713e-03, 9.15632956e-03, -3.14373919e-03,
       -2.82760337e-03, 3.01031247e-02, 3.47910076e-02, -2.90197860e-02,
       -2.06445362e-02, 4.23802482e-03, -1.04110027e-02, -5.02326619e-03,
       -1.20945759e-02, -1.61879659e-02, 3.77360210e-02, 4.07486856e-02,
       -2.58482415e-02, -1.72308795e-02, -1.38133494e-02,
       -2.24246476e-02, -1.91401299e-02, -1.30279446e-02,
       -2.02762652e-02, 4.14687283e-02, 1.05054621e-02, -1.99260693e-02,
       -3.93821485e-03, 1.57397222e-02, -1.06915357e-02, 8.53451493e-04,
       -6.84013218e-03, -1.41745582e-02, 2.32698135e-02, 2.22909059e-02,
       -1.81326550e-02, -8.15778505e-03, -3.26112984e-03,
       -1.33930808e-02, -9.70537774e-03, -1.33857932e-02,
       -1.51401013e-02, 3.76348831e-02, 4.20507342e-02, -2.10000966e-02,
       -1.96875092e-02, -1.34459315e-02, -6.93693291e-03,
       -9.81926452e-03, -1.63930934e-02, -1.87482219e-02, 4.92285676e-02,
       3.93063910e-02, -1.20700998e-02, -1.57519411e-02, -3.50477552e-04,
       -7.52198836e-03, -1.07102990e-02, -2.88834441e-02,
       -1.81268845e-02, 4.46054377e-02, 1.18164811e-02, -1.24987913e-02,
       -2.34586522e-02, -3.81723163e-03, -7.40260584e-04,
       -3.60830734e-03, -1.67117175e-02, -1.32215619e-02, 3.07891462e-02,
       1.09719448e-02, -9.67423990e-03, -1.47736426e-02, -1.91912241e-03,
       2.91215884e-03, -5.74234314e-03, -1.05789220e-02, -4.24709497e-03,
       2.92636063e-02, 3.60267907e-02, -1.13238199e-02, -1.99941918e-02,
       -5.01209358e-03, -1.61225833e-02, -2.02897955e-02,
       -2.44775582e-02, -8.85868818e-03, 3.80148105e-02, 4.37198877e-02,
       -1.16247041e-02, -3.35277766e-02, -5.50505891e-03,
       -1.10342950e-02, -2.07986068e-02, -2.37164740e-02, 5.03138686e-03,
       5.75312972e-02, 1.94708409e-03, -9.44310520e-03, -2.11256240e-02,
       -7.85894413e-03, -1.24329412e-02, -1.25492252e-02,
       -5.47875324e-03, -6.04213448e-04, 2.16614902e-02, 1.12200240e-02,
       -1.20604597e-02, -3.69854234e-02, -4.89085400e-03,
       -2.50166617e-02, -3.41441669e-03, -6.16884744e-03, 8.09806632e-04,
       2.58847028e-02, -3.13240499e-03, 7.84623530e-03, 6.25405181e-03,
       3.71425971e-02, 4.73080538e-02, 3.77827734e-02, 7.82676693e-03,
       1.69246458e-03, -7.60009419e-03, -5.97741548e-03, -1.59502886e-02,
       -8.38099793e-03, 2.28515454e-02, 2.64934041e-02, 3.65001597e-02,
       3.77547956e-04, -3.64965387e-03, -6.65547652e-03, -2.55030058e-02,
       -1.40455151e-02, 4.69120592e-03, 2.64529176e-02, 2.51770392e-02,
       4.40062508e-02, 1.81956450e-04, -1.08198887e-02, -1.54325999e-02,
       -3.66418250e-02, -2.40276363e-02, -3.39244655e-03, 2.42124852e-02,
       1.98138529e-03, 2.58365441e-02, -1.11209843e-02, -2.08064653e-02,
       -3.37595753e-02, -6.22543646e-03, -2.76615797e-03, 2.32450361e-03,
       2.15878673e-02, 3.50831896e-02, 2.36859061e-02, 8.90188458e-05,
       2.64963764e-03, -5.71762444e-03, -1.20310858e-02, -1.27639649e-02,
       -1.27682630e-02, 1.63423419e-02, 1.22555327e-02, 1.40795829e-02,
       -4.58185840e-03, -1.79984723e-03, -1.40659949e-02,
       -1.31004322e-02, 9.92102548e-04, 2.03291420e-02, 3.64912115e-02,
       3.02092973e-02, 2.20446102e-02, -1.28968200e-02, -1.44562786e-02,
       -1.97573528e-02, -1.88551508e-02, -1.16133280e-02, 7.43251934e-04,
       3.32179330e-02, 1.76464133e-02, 1.70365646e-02, -1.65863372e-02,
       -1.61147192e-02, -1.88608617e-02, 2.21351604e-03, -7.57778948e-03,
       -1.14862928e-02, 1.85307339e-02, 2.00269967e-02, 1.21224662e-02,
       -7.69572146e-03, -6.01590727e-04, -2.89187185e-03, 1.06770983e-02,
       1.33086462e-02, 2.52528465e-03, 1.54942451e-02, 1.24842506e-02,
       1.26186023e-02, -1.23222871e-02, -4.50715655e-03, 1.16109417e-03,
       -1.79445762e-02, -1.34269930e-02, -4.78751305e-03, 2.85774786e-02,
       2.07121167e-02, 1.61849335e-02, -2.83608213e-04, -3.31433630e-03,
       -1.69893391e-02, -1.55822486e-02, -6.11224351e-03,
       -3.51262023e-03, 1.09801944e-02, 2.01725997e-02, 2.90660020e-02,
       1.59199983e-02, 3.93652543e-03, -2.03122236e-02, -1.53972907e-03,
       5.15189627e-03, 3.24392179e-03, 2.20903140e-02, 1.48376776e-02,
       1.11708762e-02, -2.50986521e-03, -8.35362822e-03, -1.59929171e-02,
       2.10276448e-05, 5.00015914e-03, 4.24616830e-03, 2.82747243e-02,
       1.61215905e-02, 1.52508207e-02, 1.80338928e-03, 2.10609884e-04,
       -1.00967465e-02, -3.23533379e-02, -1.13420803e-02,
       -1.01881828e-02, 1.42284269e-02, 2.39856672e-02, 1.99314449e-02,
       1.71441045e-02, 4.54938645e-03, -2.89268568e-02, -2.56813206e-02,
       -6.74687512e-03, -1.39068998e-02, 2.88964137e-02, 2.59051807e-02,
       3.07088289e-02, 1.63863041e-02, 1.00539420e-02, -2.12252196e-02,
       -1.04890065e-02, -6.25547720e-03, -1.56230468e-03, 1.48379598e-02,
       1.39438547e-02, 1.56073570e-02, -2.53303122e-04, 1.35885680e-03,
       -9.54499282e-03, -1.40912570e-02, -1.20558972e-02, 4.57590818e-03,
       1.25040244e-02, 1.62626412e-02, 1.61133148e-02, -1.09812682e-02,
       -4.41834563e-03, -4.94297640e-03, -1.90361273e-02,
       -8.69400147e-03, -5.80366068e-05, 2.42953356e-02, 3.02388854e-02,
       3.12182140e-02, 1.07817138e-02, 1.93602173e-03, -1.33224223e-02,
       -1.34485383e-02, -6.08128449e-03, 2.00102348e-02, 3.49138379e-02,
       9.55429859e-03, 2.25260127e-02, -1.82195264e-03, 3.34701361e-03,
       -9.32055805e-03, -1.04247238e-02, -7.22935703e-03, 7.27083359e-04,
       9.30362009e-03, 2.05662791e-02, 1.05327964e-02, -2.51758122e-03,
       6.85023237e-03, 4.59261173e-05, -4.79803560e-03, -1.25009017e-02,
       -1.97120127e-03, 2.39585992e-02, 2.68012546e-02, 1.20718339e-02,
       -1.28380936e-02, -6.54670363e-03, 6.04386732e-04, -1.22802649e-02,
       -4.07545175e-03, 8.29506945e-03, 2.39167660e-02, 2.57807896e-02,
       2.90982872e-02, 7.45227560e-03, 6.87026372e-03, -4.88358922e-03,
       -2.47935858e-02, -1.32531151e-02, -3.84931080e-03, 2.65542176e-02,
       2.76546460e-02, 4.20954116e-02, 9.45964456e-03, -2.57801032e-03,
       -1.24134105e-02, -2.01030122e-03, -1.13897827e-02, 4.45017591e-03,
       2.60887276e-02, 2.11331211e-02, 1.12308962e-02, -1.22901555e-02,
       -4.25750250e-03, 6.30249642e-03, 7.42567191e-03, 5.25346305e-03,
       1.19929258e-02, 2.25301925e-02, 2.47341637e-02, 1.19471615e-02,
       -8.84520728e-03, -1.03697451e-02, 6.68427441e-03, -1.82818733e-02,
       -1.36007788e-02, -4.12179470e-05, 1.91545486e-02, 2.25992091e-02,
       2.20573023e-02, 5.95490867e-03, -5.49611589e-03, -1.22201294e-02,
       -2.51922291e-04, -2.52843322e-03, 8.37108679e-03, 1.34244468e-02,
       1.78374089e-02, 2.24694032e-02, 2.87388870e-03, -1.05001647e-02,
       1.73015997e-03, 1.45911165e-02, 6.59523113e-03, 8.32952466e-03,
       8.58118199e-03, 1.26777003e-02, 4.33284743e-03, -2.76711769e-03,
       -5.85263735e-03, 9.38333105e-03, 9.96812899e-03, -1.80282211e-03,
       2.74474337e-03, 1.64240915e-02, 6.21233881e-03, 1.33356862e-02,
       -9.51966969e-04, -3.36498371e-03, 1.21714929e-02, 3.75297014e-03,
       7.81259872e-03, 1.81504302e-02, 1.88844763e-02, 1.80279538e-02,
       1.49690658e-02, -9.74368677e-03, -2.28592139e-02, -1.71421899e-03,
       -6.73521217e-03, 8.35861918e-03, 1.89766008e-02, 2.56819837e-02,
       1.09865898e-02, 1.46364728e-02, -7.60542741e-03, -1.88914593e-02,
       -1.24259647e-02, 1.01015130e-02, -1.28630931e-02, 4.44349973e-03,
       2.42013615e-02, -1.33993605e-03, 6.63741492e-03, 1.54740189e-03,
       -2.65299389e-03, 9.79687832e-03, 9.72455740e-03, -4.03145002e-03,
       7.21574202e-03, 1.58456303e-02, -2.26558768e-03, 3.15646688e-03,
       -1.70597079e-04, 5.79150580e-03, 1.02544855e-02, -1.92998666e-02,
       -1.06048293e-03, 7.71008665e-03, 2.15973202e-02, 2.35184897e-02,
       2.13639792e-02, 4.41315630e-03, -7.92028103e-03, -1.69910379e-02,
       -2.17694920e-02, -8.86233430e-03, 4.33121994e-03, 2.24746335e-02,
       2.09163409e-02, 1.77929513e-02, 7.20987748e-03, 9.14569013e-03,
       -1.59551483e-02, 8.27363328e-05, -5.63580729e-03, -3.59256635e-03,
       1.41505506e-02, 9.76967718e-03, 8.17361195e-03, -1.12425233e-03,
       3.63923167e-03, 3.76930833e-03, 3.11472965e-03, 1.99634372e-03,
       -1.50504662e-03, 1.63359419e-02, 1.22399218e-02, 5.79661177e-03,
       -4.48187022e-03, 2.97132484e-03, 1.06536625e-02, -2.12936420e-02,
       -9.82198212e-03, 8.00144207e-03, 2.28760019e-02, 2.12618411e-02,
       1.09384693e-02, 1.08611444e-02, 1.18685551e-02, -1.50823519e-02,
       -1.72159169e-02, -3.82147590e-03, 1.42224263e-02, 3.34160328e-02,
       1.88084263e-02, 7.09375460e-03, -1.08365202e-02, -1.01404181e-02,
       -1.65493656e-02, 5.26267989e-03, 2.97274976e-03, -4.05482628e-04,
       1.42947892e-02, 4.66155400e-03, 6.06211415e-03, -2.58424855e-03,
       -1.01993256e-03, 1.54307811e-02, 9.66326054e-03, -6.14805939e-03,
       -7.88431894e-03, 1.87650397e-02, 2.03706487e-03, 1.79458074e-02,
       1.11600989e-02, 7.16042984e-03, 1.73062067e-02, -1.57801509e-02,
       -1.02778077e-02, 8.53248313e-03, 2.18668468e-02, 1.10854618e-02,
       1.43018086e-02, -1.79938618e-02, -2.36231554e-02, -9.85528156e-03,
       -1.66829787e-02, -1.27087403e-02, 7.61388568e-03, 2.51822900e-02,
       1.32677425e-02, 2.86150258e-02, 3.46064614e-03, -1.03955232e-02,
       -2.47039087e-03, -1.35466599e+00 ]
